{
  "input_nodes": 5,
  "hidden_nodes": 8,
  "output_nodes": 2,
  "weights_ih": {
    "rows": 8,
    "cols": 5,
    "data": [
      [
        -0.7145658520757872,
        -0.07948360441297424,
        -0.6051503857345859,
        0.7418025753734219,
        -0.2059241479575613
      ],
      [
        0.2217547196509508,
        0.3758759457398055,
        -0.7680185201524368,
        -0.25767155504891215,
        -0.753427876063145
      ],
      [
        0.3662930754354479,
        -0.40054596047194063,
        0.792805235697887,
        0.7590256187600333,
        -0.8616233311621829
      ],
      [
        -0.6297727050539135,
        -0.27236362752856946,
        0.6614302035068238,
        -0.63353260334886,
        -0.36023242519783616
      ],
      [
        0.9975161378621092,
        -0.6464642160665146,
        -0.8051078627563224,
        0.5712470240749097,
        1.0051105423676827
      ],
      [
        -0.7717148404922347,
        -0.830065157424955,
        -0.9612812344088821,
        -0.4183861587961508,
        0.005017468280807957
      ],
      [
        -0.8919466596697716,
        0.2273275890778823,
        0.738167370656718,
        -0.35016046562335995,
        0.33949462573027445
      ],
      [
        0.7833875918100314,
        -1.080957894852839,
        -0.21317915324156075,
        -0.7080805078403232,
        0.13634298671768352
      ]
    ]
  },
  "weights_ho": {
    "rows": 2,
    "cols": 8,
    "data": [
      [
        -0.5537265241468463,
        -0.8384621505311024,
        0.848899049461302,
        -0.674361039611571,
        0.5904428888486415,
        -0.8191069804719486,
        -0.525627513713291,
        -0.7266749700740562
      ],
      [
        0.4520667672518174,
        0.5201146937994887,
        -0.770937985638055,
        -0.5213064589140578,
        -0.9316705431031151,
        0.89939054677204,
        0.46787320665994003,
        -0.7726437575982478
      ]
    ]
  },
  "bias_h": {
    "rows": 8,
    "cols": 1,
    "data": [
      [
        0.36370753299281205
      ],
      [
        0.0350743158898746
      ],
      [
        0.006824374344553193
      ],
      [
        0.22177159109112396
      ],
      [
        0.05981078522257466
      ],
      [
        -0.9357516746195129
      ],
      [
        -0.38166507981632797
      ],
      [
        0.35770483174552115
      ]
    ]
  },
  "bias_o": {
    "rows": 2,
    "cols": 1,
    "data": [
      [
        0.4463903679145487
      ],
      [
        0.5303075114854101
      ]
    ]
  },
  "learning_rate": 0.1,
  "activation_function": {}
}
